Language model created by QuickLM on Thu Jul  4 20:05:08 EDT 2013
Copyright (c) 1996-2010 Carnegie Mellon University and Alexander I. Rudnicky

The model is in standard ARPA format, designed by Doug Paul while he was at MITRE.

The code that was used to produce this language model is available in Open Source.
Please visit http://www.speech.cs.cmu.edu/tools/ for more information

The (fixed) discount mass is 0.5. The backoffs are computed using the ratio method.
This model based on a corpus of 202 sentences and 202 words

\data\
ngram 1=202
ngram 2=400
ngram 3=200

\1-grams:
-0.7782 </s> -0.3010
-0.7782 <s> -0.2218
-3.0835 ADD-SNIPPET -0.2218
-3.0835 ADD-VOCAB -0.2218
-3.0835 ALLCAPS -0.2218
-3.0835 ALPHA -0.2218
-3.0835 APPOSTROPY -0.2218
-3.0835 AT -0.2218
-3.0835 AUTOCOMPLETE -0.2218
-3.0835 BITSHIFT -0.2218
-3.0835 BITWISE -0.2218
-3.0835 BRACE -0.2218
-3.0835 BRACKET -0.2218
-3.0835 BRAVO -0.2218
-3.0835 CAP-ALPHA -0.2218
-3.0835 CAP-BRAVO -0.2218
-3.0835 CAP-CHARLIE -0.2218
-3.0835 CAP-DELTA -0.2218
-3.0835 CAP-ECHO -0.2218
-3.0835 CAP-FOXTROT -0.2218
-3.0835 CAP-GOLF -0.2218
-3.0835 CAP-HOTEL -0.2218
-3.0835 CAP-INDIA -0.2218
-3.0835 CAP-JULIE -0.2218
-3.0835 CAP-KILO -0.2218
-3.0835 CAP-LIMA -0.2218
-3.0835 CAP-MIKE -0.2218
-3.0835 CAP-NOVEMBER -0.2218
-3.0835 CAP-OSCAR -0.2218
-3.0835 CAP-PAPA -0.2218
-3.0835 CAP-QUEBEC -0.2218
-3.0835 CAP-ROMEO -0.2218
-3.0835 CAP-SIERRA -0.2218
-3.0835 CAP-TANGO -0.2218
-3.0835 CAP-UNIFORM -0.2218
-3.0835 CAP-VICTOR -0.2218
-3.0835 CAP-WHISKEY -0.2218
-3.0835 CAP-X-RAY -0.2218
-3.0835 CAP-YANKEE -0.2218
-3.0835 CAP-ZEN -0.2218
-3.0835 CHARLIE -0.2218
-3.0835 CHOOSE -0.2218
-3.0835 CHOOSE-FOLDER -0.2218
-3.0835 CLASS -0.2218
-3.0835 CLICK-CANCEL -0.2218
-3.0835 CLICK-SAVE -0.2218
-3.0835 CLOSE -0.2218
-3.0835 COLON -0.2218
-3.0835 COMMA -0.2218
-3.0835 COMMENT -0.2218
-3.0835 COPY -0.2218
-3.0835 CUT -0.2218
-3.0835 DATE-STAMP -0.2218
-3.0835 DE-SELECT -0.2218
-3.0835 DEL -0.2218
-2.7825 DELETE -0.2218
-3.0835 DELETE-BLOCK -0.2218
-3.0835 DELETE-LINE -0.2218
-3.0835 DELETE-WORD -0.2218
-3.0835 DELTA -0.2218
-3.0835 DIVIDE -0.2218
-3.0835 DOLLAR -0.2218
-3.0835 DOWN -0.2218
-3.0835 DUPLICATE -0.2218
-3.0835 ECHO -0.2218
-3.0835 EIGHT -0.2218
-3.0835 ELIPSIS -0.2218
-3.0835 ELSE -0.2218
-3.0835 ELSE-IF -0.2218
-3.0835 ENTER -0.2218
-3.0835 EQUALS -0.2218
-3.0835 EXCLAMATION-POINT -0.2218
-3.0835 EXPONENT -0.2218
-3.0835 FIBINACHI -0.2218
-3.0835 FILE-TYPE-PYTHON -0.2218
-3.0835 FIND -0.2218
-3.0835 FIVE -0.2218
-3.0835 FOR-K -0.2218
-3.0835 FOR-K-V -0.2218
-3.0835 FOR-LOOP -0.2218
-3.0835 FOUR -0.2218
-3.0835 FOXTROT -0.2218
-3.0835 FROM -0.2218
-3.0835 FULL-SCREEN -0.2218
-3.0835 FUNCTION -0.2218
-3.0835 GOLF -0.2218
-3.0835 HASH-BANG -0.2218
-3.0835 HOTEL -0.2218
-3.0835 HUNDRED -0.2218
-3.0835 IF -0.2218
-3.0835 IMPORT -0.2218
-3.0835 IN-IT -0.2218
-3.0835 INDENT -0.2218
-3.0835 INDIA -0.2218
-3.0835 JULIE -0.2218
-3.0835 KILO -0.2218
-3.0835 LEFT -0.2218
-3.0835 LIMA -0.2218
-3.0835 LINE -0.2218
-3.0835 LINE-DOWN -0.2218
-3.0835 LINE-UP -0.2218
-3.0835 LIST -0.2218
-3.0835 LIVE-SCOPES -0.2218
-3.0835 LOWERCASE -0.2218
-3.0835 MAP -0.2218
-3.0835 METHOD -0.2218
-3.0835 MIKE -0.2218
-3.0835 MILLOIN -0.2218
-3.0835 MILTI-SELECT -0.2218
-3.0835 MINUS -0.2218
-3.0835 MODULUS -0.2218
-3.0835 MULTI-COMMENT -0.2218
-3.0835 NEW -0.2218
-3.0835 NEXT -0.2218
-3.0835 NEXT-TAB -0.2218
-3.0835 NINE -0.2218
-3.0835 NOVEMBER -0.2218
-3.0835 ONE -0.2218
-2.7825 OPEN -0.2218
-3.0835 OSCAR -0.2218
-3.0835 PAGE-ONE -0.2218
-3.0835 PAGE-THREE -0.2218
-3.0835 PAGE-TWO -0.2218
-3.0835 PAPA -0.2218
-3.0835 PAREN -0.2218
-3.0835 PASTE -0.2218
-3.0835 PERCENT -0.2218
-3.0835 PERIOD -0.2218
-3.0835 PIE -0.2218
-3.0835 PLAY-MACRO -0.2218
-3.0835 PLUS -0.2218
-3.0835 POUND -0.2218
-3.0835 POW -0.2218
-3.0835 PREVIOUS-TAB -0.2218
-3.0835 PRINT -0.2218
-3.0835 QUEBEC -0.2218
-3.0835 QUESTION-MARK -0.2218
-3.0835 QUIT -0.2218
-3.0835 QUOTE -0.2218
-3.0835 RANGE -0.2218
-3.0835 RECORD-MACRO -0.2218
-3.0835 REDO -0.2218
-3.0835 RETURN -0.2218
-3.0835 RIGHT -0.2218
-3.0835 ROMEO -0.2218
-3.0835 RUN-MACRO -0.2218
-3.0835 SAVE -0.2218
-3.0835 SAVE-MACRO -0.2218
-3.0835 SELECT -0.2218
-3.0835 SELECT-ALL -0.2218
-3.0835 SELECT-BODY -0.2218
-3.0835 SELECT-DOWN -0.2218
-3.0835 SELECT-ELEMENT -0.2218
-3.0835 SELECT-LINE -0.2218
-3.0835 SELECT-MILTI -0.2218
-3.0835 SELECT-TILL-END -0.2218
-3.0835 SELECT-TILL-START -0.2218
-3.0835 SELECT-UP -0.2218
-3.0835 SELECT-WORD -0.2218
-3.0835 SEMI-COLIN -0.2218
-3.0835 SEVEN -0.2218
-3.0835 SIERRA -0.2218
-3.0835 SINGLE-QUOTE -0.2218
-3.0835 SIX -0.2218
-3.0835 SLAP -0.2218
-3.0835 SLASH -0.2218
-3.0835 SPACE -0.2218
-3.0835 SPLIT-THREE -0.2218
-3.0835 SPLIT-TWO -0.2218
-3.0835 SWITCH -0.2218
-3.0835 TAB -0.2218
-3.0835 TAG -0.2218
-3.0835 TANGO -0.2218
-3.0835 THOUSAND -0.2218
-3.0835 THREAD -0.2218
-3.0835 THREE -0.2218
-3.0835 TIME-STAMP -0.2218
-3.0835 TIMES -0.2218
-3.0835 TOGGLE-BASE -0.2218
-3.0835 TOGGLE-BLOCK -0.2218
-3.0835 TOGGLE-PYTHON -0.2218
-3.0835 TOGGLE-SUBLIME -0.2218
-3.0835 TWO -0.2218
-3.0835 UN-INDENT -0.2218
-3.0835 UN-SPLIT -0.2218
-3.0835 UN-WRAP -0.2218
-3.0835 UNDERSCORE -0.2218
-3.0835 UNDO -0.2218
-3.0835 UNIFORM -0.2218
-3.0835 UNIX-E-POCK -0.2218
-3.0835 UNIX-STAMP -0.2218
-3.0835 UNIXNANO-E-POCK -0.2218
-3.0835 UNIXNANO-STAMP -0.2218
-3.0835 UP -0.2218
-3.0835 UPPERCASE -0.2218
-3.0835 USE -0.2218
-3.0835 VICTOR -0.2218
-3.0835 WHISKEY -0.2218
-3.0835 X-RAY -0.2218
-3.0835 YANKEE -0.2218
-3.0835 ZEN -0.2218
-3.0835 ZERO -0.2218

\2-grams:
-2.6064 <s> ADD-SNIPPET 0.0000
-2.6064 <s> ADD-VOCAB 0.0000
-2.6064 <s> ALLCAPS 0.0000
-2.6064 <s> ALPHA 0.0000
-2.6064 <s> APPOSTROPY 0.0000
-2.6064 <s> AT 0.0000
-2.6064 <s> AUTOCOMPLETE 0.0000
-2.6064 <s> BITSHIFT 0.0000
-2.6064 <s> BITWISE 0.0000
-2.6064 <s> BRACE 0.0000
-2.6064 <s> BRACKET 0.0000
-2.6064 <s> BRAVO 0.0000
-2.6064 <s> CAP-ALPHA 0.0000
-2.6064 <s> CAP-BRAVO 0.0000
-2.6064 <s> CAP-CHARLIE 0.0000
-2.6064 <s> CAP-DELTA 0.0000
-2.6064 <s> CAP-ECHO 0.0000
-2.6064 <s> CAP-FOXTROT 0.0000
-2.6064 <s> CAP-GOLF 0.0000
-2.6064 <s> CAP-HOTEL 0.0000
-2.6064 <s> CAP-INDIA 0.0000
-2.6064 <s> CAP-JULIE 0.0000
-2.6064 <s> CAP-KILO 0.0000
-2.6064 <s> CAP-LIMA 0.0000
-2.6064 <s> CAP-MIKE 0.0000
-2.6064 <s> CAP-NOVEMBER 0.0000
-2.6064 <s> CAP-OSCAR 0.0000
-2.6064 <s> CAP-PAPA 0.0000
-2.6064 <s> CAP-QUEBEC 0.0000
-2.6064 <s> CAP-ROMEO 0.0000
-2.6064 <s> CAP-SIERRA 0.0000
-2.6064 <s> CAP-TANGO 0.0000
-2.6064 <s> CAP-UNIFORM 0.0000
-2.6064 <s> CAP-VICTOR 0.0000
-2.6064 <s> CAP-WHISKEY 0.0000
-2.6064 <s> CAP-X-RAY 0.0000
-2.6064 <s> CAP-YANKEE 0.0000
-2.6064 <s> CAP-ZEN 0.0000
-2.6064 <s> CHARLIE 0.0000
-2.6064 <s> CHOOSE 0.0000
-2.6064 <s> CHOOSE-FOLDER 0.0000
-2.6064 <s> CLASS 0.0000
-2.6064 <s> CLICK-CANCEL 0.0000
-2.6064 <s> CLICK-SAVE 0.0000
-2.6064 <s> CLOSE 0.0000
-2.6064 <s> COLON 0.0000
-2.6064 <s> COMMA 0.0000
-2.6064 <s> COMMENT 0.0000
-2.6064 <s> COPY 0.0000
-2.6064 <s> CUT 0.0000
-2.6064 <s> DATE-STAMP 0.0000
-2.6064 <s> DE-SELECT 0.0000
-2.6064 <s> DEL 0.0000
-2.3054 <s> DELETE 0.0000
-2.6064 <s> DELETE-BLOCK 0.0000
-2.6064 <s> DELETE-LINE 0.0000
-2.6064 <s> DELETE-WORD 0.0000
-2.6064 <s> DELTA 0.0000
-2.6064 <s> DIVIDE 0.0000
-2.6064 <s> DOLLAR 0.0000
-2.6064 <s> DOWN 0.0000
-2.6064 <s> DUPLICATE 0.0000
-2.6064 <s> ECHO 0.0000
-2.6064 <s> EIGHT 0.0000
-2.6064 <s> ELIPSIS 0.0000
-2.6064 <s> ELSE 0.0000
-2.6064 <s> ELSE-IF 0.0000
-2.6064 <s> ENTER 0.0000
-2.6064 <s> EQUALS 0.0000
-2.6064 <s> EXCLAMATION-POINT 0.0000
-2.6064 <s> EXPONENT 0.0000
-2.6064 <s> FIBINACHI 0.0000
-2.6064 <s> FILE-TYPE-PYTHON 0.0000
-2.6064 <s> FIND 0.0000
-2.6064 <s> FIVE 0.0000
-2.6064 <s> FOR-K 0.0000
-2.6064 <s> FOR-K-V 0.0000
-2.6064 <s> FOR-LOOP 0.0000
-2.6064 <s> FOUR 0.0000
-2.6064 <s> FOXTROT 0.0000
-2.6064 <s> FROM 0.0000
-2.6064 <s> FULL-SCREEN 0.0000
-2.6064 <s> FUNCTION 0.0000
-2.6064 <s> GOLF 0.0000
-2.6064 <s> HASH-BANG 0.0000
-2.6064 <s> HOTEL 0.0000
-2.6064 <s> HUNDRED 0.0000
-2.6064 <s> IF 0.0000
-2.6064 <s> IMPORT 0.0000
-2.6064 <s> IN-IT 0.0000
-2.6064 <s> INDENT 0.0000
-2.6064 <s> INDIA 0.0000
-2.6064 <s> JULIE 0.0000
-2.6064 <s> KILO 0.0000
-2.6064 <s> LEFT 0.0000
-2.6064 <s> LIMA 0.0000
-2.6064 <s> LINE 0.0000
-2.6064 <s> LINE-DOWN 0.0000
-2.6064 <s> LINE-UP 0.0000
-2.6064 <s> LIST 0.0000
-2.6064 <s> LIVE-SCOPES 0.0000
-2.6064 <s> LOWERCASE 0.0000
-2.6064 <s> MAP 0.0000
-2.6064 <s> METHOD 0.0000
-2.6064 <s> MIKE 0.0000
-2.6064 <s> MILLOIN 0.0000
-2.6064 <s> MILTI-SELECT 0.0000
-2.6064 <s> MINUS 0.0000
-2.6064 <s> MODULUS 0.0000
-2.6064 <s> MULTI-COMMENT 0.0000
-2.6064 <s> NEW 0.0000
-2.6064 <s> NEXT 0.0000
-2.6064 <s> NEXT-TAB 0.0000
-2.6064 <s> NINE 0.0000
-2.6064 <s> NOVEMBER 0.0000
-2.6064 <s> ONE 0.0000
-2.3054 <s> OPEN 0.0000
-2.6064 <s> OSCAR 0.0000
-2.6064 <s> PAGE-ONE 0.0000
-2.6064 <s> PAGE-THREE 0.0000
-2.6064 <s> PAGE-TWO 0.0000
-2.6064 <s> PAPA 0.0000
-2.6064 <s> PAREN 0.0000
-2.6064 <s> PASTE 0.0000
-2.6064 <s> PERCENT 0.0000
-2.6064 <s> PERIOD 0.0000
-2.6064 <s> PIE 0.0000
-2.6064 <s> PLAY-MACRO 0.0000
-2.6064 <s> PLUS 0.0000
-2.6064 <s> POUND 0.0000
-2.6064 <s> POW 0.0000
-2.6064 <s> PREVIOUS-TAB 0.0000
-2.6064 <s> PRINT 0.0000
-2.6064 <s> QUEBEC 0.0000
-2.6064 <s> QUESTION-MARK 0.0000
-2.6064 <s> QUIT 0.0000
-2.6064 <s> QUOTE 0.0000
-2.6064 <s> RANGE 0.0000
-2.6064 <s> RECORD-MACRO 0.0000
-2.6064 <s> REDO 0.0000
-2.6064 <s> RETURN 0.0000
-2.6064 <s> RIGHT 0.0000
-2.6064 <s> ROMEO 0.0000
-2.6064 <s> RUN-MACRO 0.0000
-2.6064 <s> SAVE 0.0000
-2.6064 <s> SAVE-MACRO 0.0000
-2.6064 <s> SELECT 0.0000
-2.6064 <s> SELECT-ALL 0.0000
-2.6064 <s> SELECT-BODY 0.0000
-2.6064 <s> SELECT-DOWN 0.0000
-2.6064 <s> SELECT-ELEMENT 0.0000
-2.6064 <s> SELECT-LINE 0.0000
-2.6064 <s> SELECT-MILTI 0.0000
-2.6064 <s> SELECT-TILL-END 0.0000
-2.6064 <s> SELECT-TILL-START 0.0000
-2.6064 <s> SELECT-UP 0.0000
-2.6064 <s> SELECT-WORD 0.0000
-2.6064 <s> SEMI-COLIN 0.0000
-2.6064 <s> SEVEN 0.0000
-2.6064 <s> SIERRA 0.0000
-2.6064 <s> SINGLE-QUOTE 0.0000
-2.6064 <s> SIX 0.0000
-2.6064 <s> SLAP 0.0000
-2.6064 <s> SLASH 0.0000
-2.6064 <s> SPACE 0.0000
-2.6064 <s> SPLIT-THREE 0.0000
-2.6064 <s> SPLIT-TWO 0.0000
-2.6064 <s> SWITCH 0.0000
-2.6064 <s> TAB 0.0000
-2.6064 <s> TAG 0.0000
-2.6064 <s> TANGO 0.0000
-2.6064 <s> THOUSAND 0.0000
-2.6064 <s> THREAD 0.0000
-2.6064 <s> THREE 0.0000
-2.6064 <s> TIME-STAMP 0.0000
-2.6064 <s> TIMES 0.0000
-2.6064 <s> TOGGLE-BASE 0.0000
-2.6064 <s> TOGGLE-BLOCK 0.0000
-2.6064 <s> TOGGLE-PYTHON 0.0000
-2.6064 <s> TOGGLE-SUBLIME 0.0000
-2.6064 <s> TWO 0.0000
-2.6064 <s> UN-INDENT 0.0000
-2.6064 <s> UN-SPLIT 0.0000
-2.6064 <s> UN-WRAP 0.0000
-2.6064 <s> UNDERSCORE 0.0000
-2.6064 <s> UNDO 0.0000
-2.6064 <s> UNIFORM 0.0000
-2.6064 <s> UNIX-E-POCK 0.0000
-2.6064 <s> UNIX-STAMP 0.0000
-2.6064 <s> UNIXNANO-E-POCK 0.0000
-2.6064 <s> UNIXNANO-STAMP 0.0000
-2.6064 <s> UP 0.0000
-2.6064 <s> UPPERCASE 0.0000
-2.6064 <s> USE 0.0000
-2.6064 <s> VICTOR 0.0000
-2.6064 <s> WHISKEY 0.0000
-2.6064 <s> X-RAY 0.0000
-2.6064 <s> YANKEE 0.0000
-2.6064 <s> ZEN 0.0000
-2.6064 <s> ZERO 0.0000
-0.3010 ADD-SNIPPET </s> -0.3010
-0.3010 ADD-VOCAB </s> -0.3010
-0.3010 ALLCAPS </s> -0.3010
-0.3010 ALPHA </s> -0.3010
-0.3010 APPOSTROPY </s> -0.3010
-0.3010 AT </s> -0.3010
-0.3010 AUTOCOMPLETE </s> -0.3010
-0.3010 BITSHIFT </s> -0.3010
-0.3010 BITWISE </s> -0.3010
-0.3010 BRACE </s> -0.3010
-0.3010 BRACKET </s> -0.3010
-0.3010 BRAVO </s> -0.3010
-0.3010 CAP-ALPHA </s> -0.3010
-0.3010 CAP-BRAVO </s> -0.3010
-0.3010 CAP-CHARLIE </s> -0.3010
-0.3010 CAP-DELTA </s> -0.3010
-0.3010 CAP-ECHO </s> -0.3010
-0.3010 CAP-FOXTROT </s> -0.3010
-0.3010 CAP-GOLF </s> -0.3010
-0.3010 CAP-HOTEL </s> -0.3010
-0.3010 CAP-INDIA </s> -0.3010
-0.3010 CAP-JULIE </s> -0.3010
-0.3010 CAP-KILO </s> -0.3010
-0.3010 CAP-LIMA </s> -0.3010
-0.3010 CAP-MIKE </s> -0.3010
-0.3010 CAP-NOVEMBER </s> -0.3010
-0.3010 CAP-OSCAR </s> -0.3010
-0.3010 CAP-PAPA </s> -0.3010
-0.3010 CAP-QUEBEC </s> -0.3010
-0.3010 CAP-ROMEO </s> -0.3010
-0.3010 CAP-SIERRA </s> -0.3010
-0.3010 CAP-TANGO </s> -0.3010
-0.3010 CAP-UNIFORM </s> -0.3010
-0.3010 CAP-VICTOR </s> -0.3010
-0.3010 CAP-WHISKEY </s> -0.3010
-0.3010 CAP-X-RAY </s> -0.3010
-0.3010 CAP-YANKEE </s> -0.3010
-0.3010 CAP-ZEN </s> -0.3010
-0.3010 CHARLIE </s> -0.3010
-0.3010 CHOOSE </s> -0.3010
-0.3010 CHOOSE-FOLDER </s> -0.3010
-0.3010 CLASS </s> -0.3010
-0.3010 CLICK-CANCEL </s> -0.3010
-0.3010 CLICK-SAVE </s> -0.3010
-0.3010 CLOSE </s> -0.3010
-0.3010 COLON </s> -0.3010
-0.3010 COMMA </s> -0.3010
-0.3010 COMMENT </s> -0.3010
-0.3010 COPY </s> -0.3010
-0.3010 CUT </s> -0.3010
-0.3010 DATE-STAMP </s> -0.3010
-0.3010 DE-SELECT </s> -0.3010
-0.3010 DEL </s> -0.3010
-0.3010 DELETE </s> -0.3010
-0.3010 DELETE-BLOCK </s> -0.3010
-0.3010 DELETE-LINE </s> -0.3010
-0.3010 DELETE-WORD </s> -0.3010
-0.3010 DELTA </s> -0.3010
-0.3010 DIVIDE </s> -0.3010
-0.3010 DOLLAR </s> -0.3010
-0.3010 DOWN </s> -0.3010
-0.3010 DUPLICATE </s> -0.3010
-0.3010 ECHO </s> -0.3010
-0.3010 EIGHT </s> -0.3010
-0.3010 ELIPSIS </s> -0.3010
-0.3010 ELSE </s> -0.3010
-0.3010 ELSE-IF </s> -0.3010
-0.3010 ENTER </s> -0.3010
-0.3010 EQUALS </s> -0.3010
-0.3010 EXCLAMATION-POINT </s> -0.3010
-0.3010 EXPONENT </s> -0.3010
-0.3010 FIBINACHI </s> -0.3010
-0.3010 FILE-TYPE-PYTHON </s> -0.3010
-0.3010 FIND </s> -0.3010
-0.3010 FIVE </s> -0.3010
-0.3010 FOR-K </s> -0.3010
-0.3010 FOR-K-V </s> -0.3010
-0.3010 FOR-LOOP </s> -0.3010
-0.3010 FOUR </s> -0.3010
-0.3010 FOXTROT </s> -0.3010
-0.3010 FROM </s> -0.3010
-0.3010 FULL-SCREEN </s> -0.3010
-0.3010 FUNCTION </s> -0.3010
-0.3010 GOLF </s> -0.3010
-0.3010 HASH-BANG </s> -0.3010
-0.3010 HOTEL </s> -0.3010
-0.3010 HUNDRED </s> -0.3010
-0.3010 IF </s> -0.3010
-0.3010 IMPORT </s> -0.3010
-0.3010 IN-IT </s> -0.3010
-0.3010 INDENT </s> -0.3010
-0.3010 INDIA </s> -0.3010
-0.3010 JULIE </s> -0.3010
-0.3010 KILO </s> -0.3010
-0.3010 LEFT </s> -0.3010
-0.3010 LIMA </s> -0.3010
-0.3010 LINE </s> -0.3010
-0.3010 LINE-DOWN </s> -0.3010
-0.3010 LINE-UP </s> -0.3010
-0.3010 LIST </s> -0.3010
-0.3010 LIVE-SCOPES </s> -0.3010
-0.3010 LOWERCASE </s> -0.3010
-0.3010 MAP </s> -0.3010
-0.3010 METHOD </s> -0.3010
-0.3010 MIKE </s> -0.3010
-0.3010 MILLOIN </s> -0.3010
-0.3010 MILTI-SELECT </s> -0.3010
-0.3010 MINUS </s> -0.3010
-0.3010 MODULUS </s> -0.3010
-0.3010 MULTI-COMMENT </s> -0.3010
-0.3010 NEW </s> -0.3010
-0.3010 NEXT </s> -0.3010
-0.3010 NEXT-TAB </s> -0.3010
-0.3010 NINE </s> -0.3010
-0.3010 NOVEMBER </s> -0.3010
-0.3010 ONE </s> -0.3010
-0.3010 OPEN </s> -0.3010
-0.3010 OSCAR </s> -0.3010
-0.3010 PAGE-ONE </s> -0.3010
-0.3010 PAGE-THREE </s> -0.3010
-0.3010 PAGE-TWO </s> -0.3010
-0.3010 PAPA </s> -0.3010
-0.3010 PAREN </s> -0.3010
-0.3010 PASTE </s> -0.3010
-0.3010 PERCENT </s> -0.3010
-0.3010 PERIOD </s> -0.3010
-0.3010 PIE </s> -0.3010
-0.3010 PLAY-MACRO </s> -0.3010
-0.3010 PLUS </s> -0.3010
-0.3010 POUND </s> -0.3010
-0.3010 POW </s> -0.3010
-0.3010 PREVIOUS-TAB </s> -0.3010
-0.3010 PRINT </s> -0.3010
-0.3010 QUEBEC </s> -0.3010
-0.3010 QUESTION-MARK </s> -0.3010
-0.3010 QUIT </s> -0.3010
-0.3010 QUOTE </s> -0.3010
-0.3010 RANGE </s> -0.3010
-0.3010 RECORD-MACRO </s> -0.3010
-0.3010 REDO </s> -0.3010
-0.3010 RETURN </s> -0.3010
-0.3010 RIGHT </s> -0.3010
-0.3010 ROMEO </s> -0.3010
-0.3010 RUN-MACRO </s> -0.3010
-0.3010 SAVE </s> -0.3010
-0.3010 SAVE-MACRO </s> -0.3010
-0.3010 SELECT </s> -0.3010
-0.3010 SELECT-ALL </s> -0.3010
-0.3010 SELECT-BODY </s> -0.3010
-0.3010 SELECT-DOWN </s> -0.3010
-0.3010 SELECT-ELEMENT </s> -0.3010
-0.3010 SELECT-LINE </s> -0.3010
-0.3010 SELECT-MILTI </s> -0.3010
-0.3010 SELECT-TILL-END </s> -0.3010
-0.3010 SELECT-TILL-START </s> -0.3010
-0.3010 SELECT-UP </s> -0.3010
-0.3010 SELECT-WORD </s> -0.3010
-0.3010 SEMI-COLIN </s> -0.3010
-0.3010 SEVEN </s> -0.3010
-0.3010 SIERRA </s> -0.3010
-0.3010 SINGLE-QUOTE </s> -0.3010
-0.3010 SIX </s> -0.3010
-0.3010 SLAP </s> -0.3010
-0.3010 SLASH </s> -0.3010
-0.3010 SPACE </s> -0.3010
-0.3010 SPLIT-THREE </s> -0.3010
-0.3010 SPLIT-TWO </s> -0.3010
-0.3010 SWITCH </s> -0.3010
-0.3010 TAB </s> -0.3010
-0.3010 TAG </s> -0.3010
-0.3010 TANGO </s> -0.3010
-0.3010 THOUSAND </s> -0.3010
-0.3010 THREAD </s> -0.3010
-0.3010 THREE </s> -0.3010
-0.3010 TIME-STAMP </s> -0.3010
-0.3010 TIMES </s> -0.3010
-0.3010 TOGGLE-BASE </s> -0.3010
-0.3010 TOGGLE-BLOCK </s> -0.3010
-0.3010 TOGGLE-PYTHON </s> -0.3010
-0.3010 TOGGLE-SUBLIME </s> -0.3010
-0.3010 TWO </s> -0.3010
-0.3010 UN-INDENT </s> -0.3010
-0.3010 UN-SPLIT </s> -0.3010
-0.3010 UN-WRAP </s> -0.3010
-0.3010 UNDERSCORE </s> -0.3010
-0.3010 UNDO </s> -0.3010
-0.3010 UNIFORM </s> -0.3010
-0.3010 UNIX-E-POCK </s> -0.3010
-0.3010 UNIX-STAMP </s> -0.3010
-0.3010 UNIXNANO-E-POCK </s> -0.3010
-0.3010 UNIXNANO-STAMP </s> -0.3010
-0.3010 UP </s> -0.3010
-0.3010 UPPERCASE </s> -0.3010
-0.3010 USE </s> -0.3010
-0.3010 VICTOR </s> -0.3010
-0.3010 WHISKEY </s> -0.3010
-0.3010 X-RAY </s> -0.3010
-0.3010 YANKEE </s> -0.3010
-0.3010 ZEN </s> -0.3010
-0.3010 ZERO </s> -0.3010

\3-grams:
-0.3010 <s> ADD-SNIPPET </s>
-0.3010 <s> ADD-VOCAB </s>
-0.3010 <s> ALLCAPS </s>
-0.3010 <s> ALPHA </s>
-0.3010 <s> APPOSTROPY </s>
-0.3010 <s> AT </s>
-0.3010 <s> AUTOCOMPLETE </s>
-0.3010 <s> BITSHIFT </s>
-0.3010 <s> BITWISE </s>
-0.3010 <s> BRACE </s>
-0.3010 <s> BRACKET </s>
-0.3010 <s> BRAVO </s>
-0.3010 <s> CAP-ALPHA </s>
-0.3010 <s> CAP-BRAVO </s>
-0.3010 <s> CAP-CHARLIE </s>
-0.3010 <s> CAP-DELTA </s>
-0.3010 <s> CAP-ECHO </s>
-0.3010 <s> CAP-FOXTROT </s>
-0.3010 <s> CAP-GOLF </s>
-0.3010 <s> CAP-HOTEL </s>
-0.3010 <s> CAP-INDIA </s>
-0.3010 <s> CAP-JULIE </s>
-0.3010 <s> CAP-KILO </s>
-0.3010 <s> CAP-LIMA </s>
-0.3010 <s> CAP-MIKE </s>
-0.3010 <s> CAP-NOVEMBER </s>
-0.3010 <s> CAP-OSCAR </s>
-0.3010 <s> CAP-PAPA </s>
-0.3010 <s> CAP-QUEBEC </s>
-0.3010 <s> CAP-ROMEO </s>
-0.3010 <s> CAP-SIERRA </s>
-0.3010 <s> CAP-TANGO </s>
-0.3010 <s> CAP-UNIFORM </s>
-0.3010 <s> CAP-VICTOR </s>
-0.3010 <s> CAP-WHISKEY </s>
-0.3010 <s> CAP-X-RAY </s>
-0.3010 <s> CAP-YANKEE </s>
-0.3010 <s> CAP-ZEN </s>
-0.3010 <s> CHARLIE </s>
-0.3010 <s> CHOOSE </s>
-0.3010 <s> CHOOSE-FOLDER </s>
-0.3010 <s> CLASS </s>
-0.3010 <s> CLICK-CANCEL </s>
-0.3010 <s> CLICK-SAVE </s>
-0.3010 <s> CLOSE </s>
-0.3010 <s> COLON </s>
-0.3010 <s> COMMA </s>
-0.3010 <s> COMMENT </s>
-0.3010 <s> COPY </s>
-0.3010 <s> CUT </s>
-0.3010 <s> DATE-STAMP </s>
-0.3010 <s> DE-SELECT </s>
-0.3010 <s> DEL </s>
-0.3010 <s> DELETE </s>
-0.3010 <s> DELETE-BLOCK </s>
-0.3010 <s> DELETE-LINE </s>
-0.3010 <s> DELETE-WORD </s>
-0.3010 <s> DELTA </s>
-0.3010 <s> DIVIDE </s>
-0.3010 <s> DOLLAR </s>
-0.3010 <s> DOWN </s>
-0.3010 <s> DUPLICATE </s>
-0.3010 <s> ECHO </s>
-0.3010 <s> EIGHT </s>
-0.3010 <s> ELIPSIS </s>
-0.3010 <s> ELSE </s>
-0.3010 <s> ELSE-IF </s>
-0.3010 <s> ENTER </s>
-0.3010 <s> EQUALS </s>
-0.3010 <s> EXCLAMATION-POINT </s>
-0.3010 <s> EXPONENT </s>
-0.3010 <s> FIBINACHI </s>
-0.3010 <s> FILE-TYPE-PYTHON </s>
-0.3010 <s> FIND </s>
-0.3010 <s> FIVE </s>
-0.3010 <s> FOR-K </s>
-0.3010 <s> FOR-K-V </s>
-0.3010 <s> FOR-LOOP </s>
-0.3010 <s> FOUR </s>
-0.3010 <s> FOXTROT </s>
-0.3010 <s> FROM </s>
-0.3010 <s> FULL-SCREEN </s>
-0.3010 <s> FUNCTION </s>
-0.3010 <s> GOLF </s>
-0.3010 <s> HASH-BANG </s>
-0.3010 <s> HOTEL </s>
-0.3010 <s> HUNDRED </s>
-0.3010 <s> IF </s>
-0.3010 <s> IMPORT </s>
-0.3010 <s> IN-IT </s>
-0.3010 <s> INDENT </s>
-0.3010 <s> INDIA </s>
-0.3010 <s> JULIE </s>
-0.3010 <s> KILO </s>
-0.3010 <s> LEFT </s>
-0.3010 <s> LIMA </s>
-0.3010 <s> LINE </s>
-0.3010 <s> LINE-DOWN </s>
-0.3010 <s> LINE-UP </s>
-0.3010 <s> LIST </s>
-0.3010 <s> LIVE-SCOPES </s>
-0.3010 <s> LOWERCASE </s>
-0.3010 <s> MAP </s>
-0.3010 <s> METHOD </s>
-0.3010 <s> MIKE </s>
-0.3010 <s> MILLOIN </s>
-0.3010 <s> MILTI-SELECT </s>
-0.3010 <s> MINUS </s>
-0.3010 <s> MODULUS </s>
-0.3010 <s> MULTI-COMMENT </s>
-0.3010 <s> NEW </s>
-0.3010 <s> NEXT </s>
-0.3010 <s> NEXT-TAB </s>
-0.3010 <s> NINE </s>
-0.3010 <s> NOVEMBER </s>
-0.3010 <s> ONE </s>
-0.3010 <s> OPEN </s>
-0.3010 <s> OSCAR </s>
-0.3010 <s> PAGE-ONE </s>
-0.3010 <s> PAGE-THREE </s>
-0.3010 <s> PAGE-TWO </s>
-0.3010 <s> PAPA </s>
-0.3010 <s> PAREN </s>
-0.3010 <s> PASTE </s>
-0.3010 <s> PERCENT </s>
-0.3010 <s> PERIOD </s>
-0.3010 <s> PIE </s>
-0.3010 <s> PLAY-MACRO </s>
-0.3010 <s> PLUS </s>
-0.3010 <s> POUND </s>
-0.3010 <s> POW </s>
-0.3010 <s> PREVIOUS-TAB </s>
-0.3010 <s> PRINT </s>
-0.3010 <s> QUEBEC </s>
-0.3010 <s> QUESTION-MARK </s>
-0.3010 <s> QUIT </s>
-0.3010 <s> QUOTE </s>
-0.3010 <s> RANGE </s>
-0.3010 <s> RECORD-MACRO </s>
-0.3010 <s> REDO </s>
-0.3010 <s> RETURN </s>
-0.3010 <s> RIGHT </s>
-0.3010 <s> ROMEO </s>
-0.3010 <s> RUN-MACRO </s>
-0.3010 <s> SAVE </s>
-0.3010 <s> SAVE-MACRO </s>
-0.3010 <s> SELECT </s>
-0.3010 <s> SELECT-ALL </s>
-0.3010 <s> SELECT-BODY </s>
-0.3010 <s> SELECT-DOWN </s>
-0.3010 <s> SELECT-ELEMENT </s>
-0.3010 <s> SELECT-LINE </s>
-0.3010 <s> SELECT-MILTI </s>
-0.3010 <s> SELECT-TILL-END </s>
-0.3010 <s> SELECT-TILL-START </s>
-0.3010 <s> SELECT-UP </s>
-0.3010 <s> SELECT-WORD </s>
-0.3010 <s> SEMI-COLIN </s>
-0.3010 <s> SEVEN </s>
-0.3010 <s> SIERRA </s>
-0.3010 <s> SINGLE-QUOTE </s>
-0.3010 <s> SIX </s>
-0.3010 <s> SLAP </s>
-0.3010 <s> SLASH </s>
-0.3010 <s> SPACE </s>
-0.3010 <s> SPLIT-THREE </s>
-0.3010 <s> SPLIT-TWO </s>
-0.3010 <s> SWITCH </s>
-0.3010 <s> TAB </s>
-0.3010 <s> TAG </s>
-0.3010 <s> TANGO </s>
-0.3010 <s> THOUSAND </s>
-0.3010 <s> THREAD </s>
-0.3010 <s> THREE </s>
-0.3010 <s> TIME-STAMP </s>
-0.3010 <s> TIMES </s>
-0.3010 <s> TOGGLE-BASE </s>
-0.3010 <s> TOGGLE-BLOCK </s>
-0.3010 <s> TOGGLE-PYTHON </s>
-0.3010 <s> TOGGLE-SUBLIME </s>
-0.3010 <s> TWO </s>
-0.3010 <s> UN-INDENT </s>
-0.3010 <s> UN-SPLIT </s>
-0.3010 <s> UN-WRAP </s>
-0.3010 <s> UNDERSCORE </s>
-0.3010 <s> UNDO </s>
-0.3010 <s> UNIFORM </s>
-0.3010 <s> UNIX-E-POCK </s>
-0.3010 <s> UNIX-STAMP </s>
-0.3010 <s> UNIXNANO-E-POCK </s>
-0.3010 <s> UNIXNANO-STAMP </s>
-0.3010 <s> UP </s>
-0.3010 <s> UPPERCASE </s>
-0.3010 <s> USE </s>
-0.3010 <s> VICTOR </s>
-0.3010 <s> WHISKEY </s>
-0.3010 <s> X-RAY </s>
-0.3010 <s> YANKEE </s>
-0.3010 <s> ZEN </s>
-0.3010 <s> ZERO </s>

\end\
